<?xml version="1.0"?>
<opencv_storage>
<cascade>
  <stageType>BOOST</stageType>
  <featureType>HAAR</featureType>
  <height>24</height>
  <width>24</width>
  <stageParams>
    <boostType>GAB</boostType>
    <minHitRate>9.9500000476837158e-01</minHitRate>
    <maxFalseAlarm>5.0000000000000000e-01</maxFalseAlarm>
    <weightTrimRate>9.4999999999999996e-01</weightTrimRate>
    <maxDepth>1</maxDepth>
    <maxWeakCount>100</maxWeakCount></stageParams>
  <featureParams>
    <maxCatCount>0</maxCatCount>
    <featSize>1</featSize>
    <mode>BASIC</mode></featureParams>
  <stageNum>6</stageNum>
  <stages>
    <!-- stage 0 -->
    <_>
      <maxWeakCount>1</maxWeakCount>
      <stageThreshold>9.6078431606292725e-01</stageThreshold>
      <weakClassifiers>
        <_>
          <internalNodes>
            0 -1 5 -1.3093752786517143e-02</internalNodes>
          <leafValues>
            9.6078431606292725e-01 -1.</leafValues></_></weakClassifiers></_>
    <!-- stage 1 -->
    <_>
      <maxWeakCount>1</maxWeakCount>
      <stageThreshold>1.</stageThreshold>
      <weakClassifiers>
        <_>
          <internalNodes>
            0 -1 8 -9.2567857354879379e-03</internalNodes>
          <leafValues>
            1. -1.</leafValues></_></weakClassifiers></_>
    <!-- stage 2 -->
    <_>
      <maxWeakCount>2</maxWeakCount>
      <stageThreshold>-3.1644269824028015e-01</stageThreshold>
      <weakClassifiers>
        <_>
          <internalNodes>
            0 -1 0 6.2420526519417763e-03</internalNodes>
          <leafValues>
            -8.9473682641983032e-01 6.6666668653488159e-01</leafValues></_>
        <_>
          <internalNodes>
            0 -1 4 6.4218039624392986e-03</internalNodes>
          <leafValues>
            -9.7744351625442505e-01 5.7829415798187256e-01</leafValues></_></weakClassifiers></_>
    <!-- stage 3 -->
    <_>
      <maxWeakCount>3</maxWeakCount>
      <stageThreshold>-9.0356892347335815e-01</stageThreshold>
      <weakClassifiers>
        <_>
          <internalNodes>
            0 -1 9 -5.0960741937160492e-03</internalNodes>
          <leafValues>
            8.0487805604934692e-01 -7.5925928354263306e-01</leafValues></_>
        <_>
          <internalNodes>
            0 -1 1 9.5244608819484711e-03</internalNodes>
          <leafValues>
            -8.1175953149795532e-01 6.9819843769073486e-01</leafValues></_>
        <_>
          <internalNodes>
            0 -1 10 2.0702786743640900e-02</internalNodes>
          <leafValues>
            -8.4250813722610474e-01 7.4590194225311279e-01</leafValues></_></weakClassifiers></_>
    <!-- stage 4 -->
    <_>
      <maxWeakCount>2</maxWeakCount>
      <stageThreshold>-6.6528372466564178e-02</stageThreshold>
      <weakClassifiers>
        <_>
          <internalNodes>
            0 -1 6 -3.1380783766508102e-02</internalNodes>
          <leafValues>
            8.8571429252624512e-01 -7.0175439119338989e-01</leafValues></_>
        <_>
          <internalNodes>
            0 -1 7 1.4045198448002338e-02</internalNodes>
          <leafValues>
            -9.4345384836196899e-01 6.3522601127624512e-01</leafValues></_></weakClassifiers></_>
    <!-- stage 5 -->
    <_>
      <maxWeakCount>2</maxWeakCount>
      <stageThreshold>1.5753653645515442e-01</stageThreshold>
      <weakClassifiers>
        <_>
          <internalNodes>
            0 -1 3 -2.1591486874967813e-03</internalNodes>
          <leafValues>
            1. -8.3333331346511841e-01</leafValues></_>
        <_>
          <internalNodes>
            0 -1 2 4.6312334015965462e-03</internalNodes>
          <leafValues>
            -8.4246349334716797e-01 1.</leafValues></_></weakClassifiers></_></stages>
  <features>
    <_>
      <rects>
        <_>
          5 2 2 21 -1.</_>
        <_>
          6 2 1 21 2.</_></rects>
      <tilted>0</tilted></_>
    <_>
      <rects>
        <_>
          5 6 3 14 -1.</_>
        <_>
          6 6 1 14 3.</_></rects>
      <tilted>0</tilted></_>
    <_>
      <rects>
        <_>
          5 15 15 4 -1.</_>
        <_>
          10 15 5 4 3.</_></rects>
      <tilted>0</tilted></_>
    <_>
      <rects>
        <_>
          9 13 6 2 -1.</_>
        <_>
          9 13 3 1 2.</_>
        <_>
          12 14 3 1 2.</_></rects>
      <tilted>0</tilted></_>
    <_>
      <rects>
        <_>
          10 7 6 11 -1.</_>
        <_>
          12 7 2 11 3.</_></rects>
      <tilted>0</tilted></_>
    <_>
      <rects>
        <_>
          11 6 1 8 -1.</_>
        <_>
          11 10 1 4 2.</_></rects>
      <tilted>0</tilted></_>
    <_>
      <rects>
        <_>
          11 8 1 9 -1.</_>
        <_>
          11 11 1 3 3.</_></rects>
      <tilted>0</tilted></_>
    <_>
      <rects>
        <_>
          12 5 2 19 -1.</_>
        <_>
          13 5 1 19 2.</_></rects>
      <tilted>0</tilted></_>
    <_>
      <rects>
        <_>
          12 11 2 8 -1.</_>
        <_>
          12 11 1 4 2.</_>
        <_>
          13 15 1 4 2.</_></rects>
      <tilted>0</tilted></_>
    <_>
      <rects>
        <_>
          12 13 3 3 -1.</_>
        <_>
          12 14 3 1 3.</_></rects>
      <tilted>0</tilted></_>
    <_>
      <rects>
        <_>
          14 8 3 16 -1.</_>
        <_>
          14 16 3 8 2.</_></rects>
      <tilted>0</tilted></_></features></cascade>
</opencv_storage>
